//Numpy array shape [512, 10]
//Min -1.933910250664
//Max 1.485396504402
//Number of zeros 0

#ifndef W5_H_
#define W5_H_

#ifndef __SYNTHESIS__
model_default_t w5[5120];
#else
model_default_t w5[5120] = {0.1246618927, 0.0310867522, -0.0872724056, 0.0553968959, -0.1392625421, 0.2171220779, 0.0088649411, -0.0511914231, 0.2557122707, 0.3439974785, -0.1566469371, -0.2660578489, -0.2698421180, -0.1076042652, 0.4200610518, 0.2081603855, 0.3088039160, 0.3464331329, -0.3173640668, 0.4350615442, -0.1754669696, 0.1680946797, 0.1192297488, -0.2304551303, -0.0621686839, -0.0499037057, 0.3113434315, 0.2153376341, -0.0311465822, 0.1224491224, -0.1046693027, -0.0310179088, -0.2071886212, -0.0917819142, -0.1129724830, 0.3160954118, 0.0793899149, 0.4419589639, 0.2413961142, 0.0361020640, -0.2237640917, 0.3090769947, 0.1686512679, -0.1621365100, 0.1378532201, 0.2348940074, 0.3502036333, 0.2182759941, 0.3270348310, 0.1910185963, 0.3955178261, 0.1954882592, 0.0313959271, 0.3222860098, -0.0414959751, 0.3372791708, -0.2143436521, -0.0606537797, -0.0688661039, -0.1527565420, -0.0172231775, 0.2446721792, -0.3920388818, -0.1827867031, 0.3604911566, -0.2947354019, -0.3081875443, -0.2910487056, 0.4383883774, 0.2590503097, -0.1372887045, 0.3448761404, 0.3393007815, -0.4068852067, -0.3395049572, -0.2662703693, 0.3944817781, 0.2663103044, -0.2813451290, -0.0823070183, 0.2652233541, -0.2632467449, -0.3225030899, -0.2781027853, 0.2996598184, 0.2952285409, 0.3293164372, -0.2899314165, -0.3321507871, -0.3078049719, -0.1404192448, -0.1235142201, -0.1984627098, -0.1060302779, -0.1226569861, 0.3614916503, 0.1251779497, 0.3171161711, 0.3295323551, 0.1659130901, -0.2073728591, 0.3789722025, 0.3608778715, -0.3013616502, 0.3446922600, 0.2003423125, 0.3708533943, 0.1830867827, 0.2548415065, 0.2337872982, -0.2890172601, 0.2384378910, 0.1353126168, -0.1546795815, 0.0913337767, 0.3209168315, 0.1839448512, 0.3312129378, 0.2337687910, 0.3200309277, -0.2262437940, 0.2699633539, 0.2973501980, -0.4235560894, 0.1920777708, -0.0514351539, -0.3397028744, -0.1817767471, -0.2723330557, 0.1244438812, -0.3156671822, 0.2398457825, -0.0442738421, -0.1143257171, -0.1739119142, 0.2829607129, 0.2794135213, 0.2302851677, 0.3163941801, 0.3249833882, 0.0950713307, -0.1963006556, 0.7270240188, -0.2046072781, -0.3009096682, 0.3011041880, -0.1005511805, -0.3478055298, -0.4933139980, -0.1300834268, -0.3806955218, 0.2430805117, 0.3469126523, -0.2234786749, 0.3535554409, 0.2338276953, 0.3827903271, 0.1564567387, 0.2273734212, 0.1769832373, -0.1958925724, 0.1293188483, 0.1948044896, -0.2438993603, 0.2215982080, 0.3241432011, 0.2387553006, 0.2276188731, 0.2159209698, 0.2574601471, -0.1814455390, 0.1595521420, 0.3033408523, -0.2239939421, 0.1800188571, 0.1794694364, 0.2482826412, 0.2163559198, 0.1820111424, 0.2396678627, 0.1854863614, -0.2578763366, 0.6448202729, 0.8302992582, -0.0128870634, -0.2905158699, -0.0276599638, 0.0035371541, -0.0180111099, -0.2038010657, -0.1617140621, 0.1517564505, 0.0777600184, -0.3059979975, 0.2785032392, 0.2275030911, 0.1900722533, 0.3198769093, 0.2008438557, 0.3514601886, -0.0979323685, 0.1403975040, -0.1922186762, 0.0821693614, -0.0670215562, 0.2676328719, -0.0117283268, 0.2249250412, 0.1242065504, 0.0403847396, -0.2273823619, 0.1644755602, 0.2665745318, -0.2907018661, 0.2394536734, 0.2282900214, 0.3415056467, 0.1833766997, 0.2645559609, 0.4223907292, 0.1135308370, -0.1674969792, -0.1814813167, 0.1762814820, -0.1722686887, 0.1996745616, 0.0050903745, -0.3908495903, 0.2702932358, 0.2421099544, -0.2390731126, 0.3650315404, -0.3508453667, -0.2059995085, 0.1803932786, 0.3409363031, 0.1685592681, 0.2626010478, 0.2482438534, 0.2599230707, 0.2009408772, 0.0338874422, -0.1515764147, 0.2291058451, -0.1883332580, 0.2613103986, 0.1682939231, -0.2171233892, 0.2180424780, 0.0575931408, -0.0555103682, 0.3491306305, 0.2204045355, -0.2013138235, 0.3833405077, 0.0055287844, 0.2803239822, -0.0523311161, 0.1296834946, -0.0817037523, -0.0007025268, 0.1808902770, 0.1875924021, 0.1349182278, -0.1153160408, 0.1318820119, -0.0429444276, 0.2274305820, -0.0799457952, -0.0034976243, -0.3034334481, 0.2681864798, -0.3883838654, -0.2909701467, -0.3075039685, 0.2700603604, -0.1578401923, 0.2755348980, -0.2876850069, -0.3145115376, 0.3743170500, -0.1757520884, 0.4414299428, 0.5435849428, 0.0663920566, -0.1684564948, 0.0458774157, -0.2440787852, -0.0350187905, -0.1538063735, 0.1047796234, 0.1679845303, -0.1142488495, 0.2209406793, -0.1102277189, 0.3248840272, -0.1035118401, 0.0053094262, 0.2603265643, 0.1105188280, 0.1669889390, 0.1868367642, -0.1299873590, 0.1783141941, -0.2052913904, 0.1968332827, 0.0912213549, -0.1127379537, 0.1763484478, 0.2473634779, -0.1320653558, 0.2080334127, -0.1606122255, -0.0359219499, -0.0803169385, 0.2599420547, -0.0015027636, 0.3342065811, 0.1080683917, 0.1030497029, 0.1699609607, 0.1470455080, -0.1311113834, 0.0424037389, -0.0517171063, 0.5375439525, 0.3216704130, 0.2920337021, 0.1599626243, -0.0996104628, -0.4813207090, 0.8935013413, -0.4279880226, -0.8945912719, 0.3119746447, -0.0559199974, -0.5868796110, 0.3848322630, -0.1184735075, 0.2496393770, -0.3664674163, 0.2640281320, -0.0974496081, -0.1717431545, 0.1038951799, 0.2670404911, 0.1570529193, -0.2973214686, -0.3223156035, -0.3085644245, -0.2152209133, 0.3694555759, 0.2203412652, -0.1843797863, 0.2079788148, 0.2540266216, 0.2011192590, 0.3780718446, 0.2195834517, 0.1679784805, -0.0922310650, 0.1350345314, 0.1648834795, -0.3612466455, -0.0089894161, 0.1742706299, -0.3353375196, 0.2763389349, -0.0506857410, -0.1383502334, -0.0748887211, -0.0592906326, 0.1764554381, 0.0408416465, -0.1081505790, 0.1568031013, 0.0887361020, 0.3192613721, -0.0124359922, 0.0663006306, -0.3287465572, 0.3512987494, 0.2518017292, -0.2401756793, 0.1595899910, 0.2348962277, 0.1916851550, 0.2209386379, 0.1885241121, 0.2336371392, -0.2274531126, -0.2975507379, 0.1771069169, -0.2215232104, 0.3865236938, 0.0979576930, -0.1887496710, 0.3651338816, 0.0248224474, 0.3477979302, -0.2952390909, -0.3358449936, -0.2636165321, -0.3017515242, -0.2655247450, -0.2576221526, -0.2957437932, 0.2655147314, -0.2724767625, 0.2831629813, -0.2172975540, -0.2956764996, 0.1640139669, -0.2008939385, 0.2257864177, -0.2301425189, 0.3669393361, 0.2413310409, -0.2974928021, 0.1963552684, 0.0556210428, 0.2926718295, -0.0683773383, -0.0097768046, -0.3422260582, 0.2330425233, -0.0931595042, -0.0293330681, 0.0333282687, -0.0257781912, -0.2124885619, 0.1831959188, 0.2318071723, -0.2065519243, 0.1695140004, 0.2108881176, 0.2966724932, 0.1931556910, 0.3011927605, 0.2054592371, -0.1911499798, -0.1522934437, 0.1982302368, -0.3186855614, 0.3548035324, 0.2885779142, 0.2174484134, 0.3270801306, 0.2093912959, 0.2522743940, -0.6789846420, 0.3102460802, -0.3768349886, -0.1671773195, 0.1931178868, 0.4155978560, 0.1240151599, 0.1358778477, 0.1542942822, -0.1464255601, -0.1427806020, 0.2316272855, 0.0385560244, -0.3398950100, 0.4049991071, 0.0065008174, -0.2258675992, 0.3110683262, 0.4949418008, -0.2241533548, 0.1059134826, -0.1463329047, -0.0919563100, 0.1903428435, -0.1603701264, 0.3808270693, -0.0125156473, 0.3625980020, 0.2581812143, 0.1112825647, 0.2767028213, -0.0276116058, 0.3041018844, 0.2823402584, -0.2973200083, -0.2946963608, -0.3212615252, 0.3554552197, -0.4489880204, -0.0288488939, -0.0604853332, -0.3303240836, -0.2648051083, -0.0390278324, -0.0856031328, 0.2368822694, 0.2717673182, 0.2162099481, 0.1478979439, 0.2051699758, -0.2512489557, 0.2104527354, 0.3345206380, -0.2425954789, 0.3439701498, 0.3600356579, 0.1884882152, 0.3205927908, 0.2503493130, 0.2158038318, -0.1748870760, 0.2216799855, 0.1370001882, -0.3153514564, 0.1736231297, 0.2865008712, 0.2315262556, 0.2385013402, 0.2459398061, 0.2391503751, -0.3214926720, -0.3455454707, -0.6781296134, -0.4948144555, 0.2889165282, -0.3366009891, 0.2721929252, 0.1401353180, 0.0898881704, 0.0688256398, -0.1835145652, 0.3178075850, -0.2757921517, -0.4048875272, -0.0469269492, 0.1570569873, 0.3075036407, 0.2575742602, -0.2910504937, 0.4379914701, -0.0540122651, -0.0865454078, -0.3055444658, -0.0149376253, -0.0162316766, 0.3665934503, 0.1087198928, 0.4352061152, 0.1807556152, 0.0742653906, -0.0944440514, 0.2689939439, -0.1278965473, -0.4080092311, 0.1234157607, -0.1870274097, -0.0963337868, -0.2280717641, -0.2869970500, -0.0232248604, -0.2090280205, -0.3018290699, 0.2452166378, -0.3530828357, 0.3574978113, 0.1894511133, 0.1931112856, 0.2639985383, 0.1472170949, 0.4114997685, -0.2194557786, 0.2387496382, 0.3212844431, -0.2085913867, 0.3546897173, 0.1972458214, 0.1955233067, 0.2250701189, 0.3640733659, 0.1869136542, -0.0437881835, 0.1201365069, 0.1184901968, 0.0338010639, -0.0526549965, 0.2015777975, -0.1100769266, 0.2026651651, 0.0718420073, 0.0064600809, 0.4028150141, -0.6062846184, 0.0965004340, -0.5221740007, -0.2485043854, -0.0870999694, -0.0338024870, -0.0136757204, -0.6112608910, -0.0766838193, -0.2171074003, -0.3168681860, 0.3703793287, -0.1317752302, 0.2357908636, 0.1711748689, 0.1506956220, 0.1005107239, -0.0715393350, 0.1455492973, 0.2887616158, -0.2980079651, 0.0099403318, -0.3041546941, -0.1232441589, -0.3477470577, -0.2909247577, 0.2972724140, -0.4182806015, -0.2460335642, -0.6134325266, 0.3273076713, -0.2568283379, 0.0519441813, -0.0735214278, -0.7454023361, 0.2244400829, -0.0673905313, -0.0735738501, -0.3973161280, -0.2063947320, 0.1967852116, 0.2189063430, -0.2971826196, 0.3524933457, 0.1318079084, 0.3219155967, 0.2250397652, 0.1468578130, 0.1527859122, 0.2518642545, 0.3254692852, 0.3425060809, -0.1945143342, -0.0676211938, -0.1336269379, -0.1692320555, 0.1492016912, -0.2664035857, -0.2877674699, 0.2733593881, 0.1837311685, -0.2585392296, -0.3487954140, 0.4235094786, -0.3056122363, 0.0888678953, -0.2128015757, -0.4122972190, -0.2804497182, -0.2340738922, -0.3397832215, 0.3926447928, -0.2384093553, 0.2126998901, -0.1796606034, -0.2528183460, 0.2683631778, -0.2942665815, 0.1841964275, 0.1151991263, -0.1402658522, 0.0486479923, 0.2184621245, -0.1866025478, 0.2810243070, 0.0289662164, 0.0217809267, 0.1123521253, -0.0655987412, 0.0439726263, 0.2005605847, 0.1431465745, 0.1197478101, -0.1600184590, 0.3299644291, -0.0917945728, -0.0195055157, 0.0120937629, -0.0881636739, 0.2153919339, -0.1541482508, -0.0639367998, 0.2319603264, -0.1826476604, 0.2809400856, 0.0387306735, -0.2978189588, 0.2397052199, -0.0185233243, 0.1073290259, -0.3278364837, -0.3461461067, -0.2888076901, -0.0926928818, -0.0776577443, 0.2510462701, 0.4411456585, -0.3833156526, 0.2151149511, -0.2435093224, 0.3410447836, 0.3304348290, -0.2098335028, 0.2099435180, 0.2508180141, 0.2545982301, 0.3590706289, 0.3262392879, 0.1847097725, -0.1680703461, 0.1490826607, 0.1665358245, -0.2098915726, 0.1571686864, 0.2549638152, 0.2615938783, 0.3528207541, 0.3347895145, 0.1892079115, -0.1614040881, 0.1928261071, 0.0190199800, -0.2764833570, -0.0179337040, 0.2872573435, 0.2477879673, 0.2455329299, 0.3227656782, 0.3025988638, -0.1914846599, -0.2805715501, 0.2079143524, -0.1947953105, 0.3270664513, 0.2500178218, 0.3660786450, 0.3731378317, 0.2082080245, 0.3754537702, 0.2611458004, -0.2689343989, 0.2864145041, 0.2599386275, 0.3297468126, 0.2882528305, 0.3132948279, -0.2714076638, -0.3125402927, -0.2981759906, -0.1734834313, 0.3555946052, 0.0632197931, -0.2259519398, 0.1773652434, 0.2649150193, 0.2160101980, 0.2384463549, 0.3090156913, 0.1904226989, -0.1752539277, 0.1984350532, 0.2199736983, -0.2126384079, 0.1677668095, 0.2665032744, 0.0111524807, 0.3229328990, 0.3772578239, 0.3727527261, 0.2580831051, -0.2298716009, 0.3230814040, 0.2488459051, -0.2901521623, -0.2609031498, 0.3088508248, -0.3173449039, -0.3841438293, -0.2726423144, -0.1894893050, 0.1701760143, 0.2304740995, -0.3470506966, 0.3698852360, 0.2325021923, 0.1877552867, 0.3012678623, 0.2565494180, 0.3012150228, -0.1689693183, 0.3583716750, 0.1668156534, -0.3017701805, 0.1908320338, 0.2783797383, 0.3532422781, 0.2477045208, 0.1992620528, 0.1829053611, -0.3111855388, -0.3133544922, -0.3504267335, -0.7036855817, 0.4294937551, 0.3420873880, 0.2906898260, -0.2356178164, -0.5624756217, 1.0194541216, 0.0168029033, 0.2243318856, -0.0060660555, 0.1077278480, -0.0928303972, 0.1335081160, -0.0961109027, 0.0948755369, -0.0442145243, -0.0301742814, -0.0331177637, 0.0822525769, 0.1749620289, 0.0977173671, 0.0520285740, 0.0664154962, -0.0786085948, -0.0065996926, 0.0372591168, -0.0479115508, 0.2837923467, 0.2864876091, 0.2668268979, 0.2583300471, -0.3254333436, -0.2658248544, -0.3247076571, -0.2917784452, -0.3000140190, -0.3128845692, -0.0313113034, 0.0787084624, 0.1738973111, 0.0957834944, 0.0407840386, 0.0217700172, 0.1342037916, 0.1359406263, -0.0604089312, -0.0206019450, -0.2117759734, -0.1633655429, 0.2984216213, -0.2924906015, 0.2491491735, 0.2121802866, 0.3724899590, 0.1866344810, 0.2409650534, 0.1617692858, -0.2285356373, -0.1428119689, 0.2556226850, -0.3266784251, 0.2037081420, 0.3134916127, 0.3401012421, 0.2538522780, 0.1845301837, 0.1342318803, 0.1758309454, -0.3408320844, -0.3521907032, 0.1342552155, -0.1545351744, 0.1947178245, 0.2733255327, 0.5658463240, -0.1801524311, 0.1872660071, -0.1515433192, -0.2828693390, 0.2655700445, 0.2629679739, -0.2606600523, -0.0824283585, -0.3436513245, 0.3440252542, -0.3419865966, -0.2854566872, -0.2118645459, -0.1566873789, -0.2369804680, 0.1374145150, -0.3803239167, 0.0543711744, -0.0096548563, -0.3984938562, 0.4027174115, 0.1239119396, -0.1436827481, -0.3239582479, -0.0406495333, -0.2157732993, -0.0343673378, 0.0419992544, 0.6114394069, 0.3683618605, 0.0015921432, 0.1822326928, -0.2207622826, 0.2501221895, 0.2592831850, -0.1858131438, 0.2543824017, 0.1862564236, 0.3313332498, 0.3165487051, 0.2090401798, 0.3392228782, -0.2742254734, 0.3002918959, 0.0488215834, -0.2814349830, -0.2236493677, -0.2871085405, -0.2643780112, -0.3224731088, -0.3339006305, -0.2704775035, -0.1973604560, 0.2409052551, 0.1892857999, -0.1906705201, 0.1398687065, 0.2309430540, 0.2159242034, 0.2276293188, 0.2574771345, 0.3746795356, -0.2938557863, -0.2670874596, 0.2988905311, -0.3088966906, -0.2640061677, 0.2938461006, 0.2882107198, -0.2564515769, -0.3143949211, -0.2802546918, 0.2115125209, 0.1309400499, 0.1478262842, 0.2670096755, 0.0246508364, -0.0597342476, 0.1252700984, 0.0238098223, -0.0891348571, -0.1904992908, 0.2284838557, 0.2719268203, 0.1701857448, 0.0957605913, -0.2618473470, 0.3186170757, -0.1355769783, 0.3467499316, 0.0676041767, -0.0708560050, 0.2896114290, -0.0392989591, 0.2336568981, 0.3909325600, 0.1382501274, -0.0475507677, -0.0595125407, 0.0223342720, -0.0829540938, 0.0881527811, 0.2581416070, -0.3428778052, 0.2330507934, -0.3601961732, 0.0723499879, 0.3164485395, 0.6163647175, 0.0368407071, -0.3062346578, -0.7232895494, 0.2249603122, -0.2162170559, -1.0997081995, -0.0856061876, 0.0669501126, 0.0324504375, 0.4854968190, -0.9641246796, -0.0430993922, -0.1420461833, 0.1339530945, -0.0818942115, -0.0417104103, 0.2937742472, -0.1526754498, 0.3548686504, -0.0894600302, 0.3398195207, 0.2101374865, 0.0596877560, 0.0993669108, -0.1628482938, -0.1679565907, -0.0581540838, -0.1130405441, 0.2250772417, 0.4070937634, -0.2550313175, 0.2009242773, 0.0821036845, -0.0706882924, 0.0903526917, -0.2024848163, -0.0523908958, -0.0719201639, 0.5376809835, -0.0533572659, 0.3453218043, 0.1588265002, 0.0727764592, -0.1902035177, 0.4575819671, 0.3987368345, -0.1582342982, 0.0863001719, 0.1919755340, 0.2256734073, 0.3596042097, 0.0235368032, 0.1503349394, -0.2293974161, 0.2457402200, 0.3002628088, -0.2510014176, 0.1508231312, 0.2642067373, -0.1259391457, 0.1429818720, 0.1726219356, 0.2575922906, -0.1821009368, 0.3511090577, 0.1896428317, -0.3213829398, 0.2632598281, 0.3346380591, 0.2122971863, 0.1948133111, 0.2298883945, 0.2342810929, -0.1164536774, -0.0193037279, -0.1685541421, 0.1389371455, -0.0681978464, 0.2893064916, -0.0824164450, 0.3282663822, 0.0682211295, 0.0090440726, -0.0354869142, -0.3186662197, 0.0252076183, 0.2287476659, 0.1772830933, -0.1983879954, -0.1252113283, -0.2780703306, 0.4479932487, -0.3097089231, -0.1695343405, 0.2308410406, 0.0596567020, -0.1692727953, 0.1749163717, 0.3911421597, 0.3320065439, 0.2643183172, 0.1978961527, 0.2605891228, 0.0118228383, 0.3196606040, 0.0489282608, 0.0611995645, -0.0914951935, 0.2715212107, -0.1547250003, 0.2461461276, 0.1379988492, 0.0056509003, 0.2577502429, -0.3032642305, -0.3377941251, -0.2703167498, 0.2725275159, -0.2841898799, -0.3111565709, 0.3393068612, -0.2579033077, -0.3225187361, -0.2936613560, 0.2829263508, -0.3145395219, 0.2638419867, 0.2803425789, -0.3396345973, -0.2863224745, 0.2625381351, -0.3228106201, 0.3349706233, 0.2580442727, -0.3061113060, 0.2951023281, 0.2567949295, -0.2974784076, -0.2597148418, 0.2845093906, -0.3153111041, -0.2806551158, -0.2672069371, -0.1849987656, 0.1731064618, 0.1941525191, -0.3344323039, 0.2930232286, 0.2528840601, 0.2430123687, 0.2186346352, 0.1840356886, 0.3212473392, 0.1387639642, 0.0825094357, -0.0760654658, 0.3380602598, 0.1682878286, 0.3036400974, -0.1995590329, 0.1761481613, -0.0379535332, -0.0218669046, -0.3093393743, 0.3424300253, -0.1905821413, -0.2161200345, 0.4013721645, 0.2103283852, 0.1442269534, 0.2709814012, 0.2098243386, 0.4544220269, 0.1228198260, -0.3028977811, 0.2747101188, -0.0885568932, -0.0860350728, -0.3326199949, 0.2926460505, -0.2609969676, 0.3393464684, -0.3127931356, -0.2208100259, 0.3138268590, 0.1952082962, -0.3157635033, 0.2714785635, 0.1961966753, 0.1859147996, 0.3070536256, 0.2280228138, 0.4006060660, -0.2024043649, 0.2946652472, -0.1117521077, -0.1415585130, -0.0010090431, 0.3463793695, 0.1494628489, 0.3184385598, 0.3989221156, 0.1980810612, -0.1690612137, 0.2986590564, 0.0663367957, -0.1980108768, -0.1503685266, 0.3198224306, 0.0946662873, 0.3420698345, 0.3641108274, 0.2072758824, -0.1951980293, 0.2941192091, 0.0318347476, -0.2316693664, 0.0851767063, 0.2860703468, 0.1890372634, 0.3923714459, 0.3307837546, 0.1686042845, 0.0575179458, 0.1758994907, 0.2131127417, -0.1649794281, 0.3823803663, -0.2258033305, 0.0436379611, 0.0131136980, -0.1894951612, -0.2071844488, -0.0802218169, 0.1054864600, -0.2318304628, -0.1083495840, -0.0959216505, 0.2044315785, 0.2241793424, 0.3593126237, 0.1170657352, 0.0122259082, 0.1269608289, -0.1318400353, -0.1752802879, 0.1849311590, -0.2231448591, 0.2275929004, -0.2393337041, 0.3985612094, 0.2200890929, -0.0290754475, 0.0485261604, -0.4369211495, -0.2227076441, 0.1070439070, -0.0257985108, 0.2213833630, 0.0245929863, 0.4267635345, 0.2026889771, 0.0901517123, 0.0378715321, -0.0638539717, -0.1221535057, 0.1930395961, -0.1052776128, 0.1198264062, 0.2748670876, 0.0229548607, 0.1213764101, 0.1082880050, 0.3605498374, -0.0632926151, 0.1565472186, 0.3578623235, 0.0825271532, 0.0576920882, 0.0146668591, 0.0835709646, -0.1676288843, 0.0370667577, -0.1532832384, 0.0495355912, 0.1225943044, 0.1369333267, -0.0097057512, 0.2970497310, -0.1058668792, 0.1701738238, 0.1570737362, -0.0077628996, -0.1321689934, 0.4250090420, 0.3175576329, -0.1269712597, -0.1667953730, 0.1534841359, -0.1595810503, 0.3373592794, 0.0544803143, -0.1415084749, 0.2518463433, -0.3276539743, 0.2767645717, -0.0931137949, 0.2643733323, -0.2915121615, -0.3136819601, 0.3914413154, 0.0116601642, -0.1066037640, -0.2498626262, 0.3742569685, 0.2242987305, -0.2291012108, -0.1726913601, 0.1987040490, 0.1823612005, 0.3267388642, 0.2078474462, 0.1487846375, -0.4018584192, 0.1613176316, -0.0841895714, 0.0037984697, -0.6125397682, -0.0076154517, 0.2475166619, -0.6018064022, 0.5127610564, -0.2315910757, -0.2016284615, 0.2830354571, 0.0589747429, -0.1838012487, 0.1177437082, 0.2426723242, 0.1987356842, 0.2207911015, 0.2081151307, 0.2580210567, -0.2125654668, -0.3324315250, 0.0620252378, -0.3515873849, 0.2672485113, 0.2428343296, -0.3415334821, -0.2420619577, 0.1903579086, -0.3109454513, -0.1490466595, 0.0880035907, 0.0830348432, -0.2932749391, -0.1399567276, 0.3254143000, 0.3341884315, 0.2052130848, 0.3087363541, 0.2991796434, -0.1651162654, 0.0804966465, -0.2850589752, 0.0573885478, -0.1653613448, 0.0480442271, 0.3121487796, 0.0563915931, 0.1369420141, 0.3062998950, 0.2782602906, 0.2756459713, -0.3018664420, -0.3070019484, -0.3379893005, -0.3402985334, -0.2754159570, 0.2893382013, -0.3162824214, -0.2694909573, -0.4232255816, 0.2580980361, 0.0342451781, -0.1160449311, -0.1505758166, 0.0280975960, 0.2589868307, -0.2552574575, 0.4749193192, 0.2789823413, -0.1872761399, 0.2445360720, 0.2034051418, -0.2210880965, 0.2568841577, 0.2351494282, 0.2651480734, 0.2954158485, 0.2244498879, 0.2891194224, -0.1954906136, 0.3405866921, 0.2248904109, -0.3026534021, 0.1963721812, 0.2545926273, 0.3287150264, 0.3302572072, 0.2121107280, 0.2356412262, -0.1662405431, 0.1871548742, 0.0624670014, -0.2907169461, 0.2270954847, 0.3426879346, 0.2215384841, 0.3656688035, 0.2014071643, 0.2189670652, -0.2009741366, 0.2675012052, 0.2442059219, -0.0856036991, 0.2019148171, -0.1927869022, 0.2036801279, 0.1786030382, 0.2782186866, 0.0565022491, -0.1821309477, 0.1881397218, 0.2716433704, -0.2017431408, 0.1729182154, 0.2113273889, 0.2183655053, 0.2119211406, 0.2004855424, 0.1863485426, -0.2372341752, 0.3028194904, 0.3580812812, -0.1749445349, 0.2525782287, 0.3054651618, 0.2088692784, 0.2175569236, 0.1882361919, 0.1861084551, -0.1993959248, -0.0768086836, 0.3645110726, -0.1872118860, 0.2263488770, 0.2350871563, 0.2172286659, 0.3266415596, 0.2399179935, 0.2008194178, -0.0273891557, 0.2621525228, -0.1816460788, 0.2615393996, -0.3907446563, -0.0730665997, 0.2211071700, -0.1663071960, -0.2892994881, -0.2814953327, 0.1934408396, 0.0793340132, 0.1230861172, 0.2615818381, 0.0291149914, 0.0328979343, -0.0660124645, 0.0233044643, -0.0628609881, 0.0740434676, 0.3203783333, 0.2788904309, 0.1503757536, 0.3086129427, -0.1613458395, 0.0238427725, -0.2236112803, 0.2208995372, 0.0255269669, -0.1023322642, -0.8049534559, -0.5182190537, -0.5034322739, 0.2906307280, -0.9590550661, 0.5482234359, -0.3404765129, -0.2965309620, -0.7340177894, -0.4798654914, -0.3142392933, 0.3526309431, 0.1498547196, -0.1725820899, 0.0887372717, 0.2889106274, 0.1915310770, 0.2284635752, 0.3281119168, 0.3072501421, -0.1952393651, 0.2068523318, 0.1849844754, -0.2332986593, 0.2158827782, 0.3664884269, 0.3034294248, 0.2329625785, 0.2195993215, 0.1851549596, -0.3887872994, 0.0988587141, 0.5150653124, -0.0766022950, 0.2350221574, -0.0577298440, -0.0215970650, -0.0919908732, -0.3781292140, -0.6574565172, -0.2636004388, 0.3290129006, 0.2023166865, -0.2059984505, 0.1897469312, 0.2550101280, 0.3306654394, 0.1933933794, 0.2695875466, 0.1856243610, 0.1814685315, 0.1688646972, -0.2163800597, 0.0783605799, -0.1363830417, 0.2428242266, 0.3303024471, -0.0375138745, 0.2885508239, 0.1110752672, -0.1943906248, 0.1593396962, 0.0294538345, -0.1711170226, 0.2391136885, 0.2211844623, 0.3335209489, 0.3650104105, 0.2026276290, 0.1987854987, -0.1341226101, 0.2341471016, 0.1016317904, -0.2242972702, -0.1682498604, -0.1768067479, 0.3956579864, 0.3175573647, 0.1323221177, 0.2407654971, -0.3426322341, 0.2938023806, 0.2571348250, 0.2745423317, -0.2707285583, -0.3057961762, -0.2625096738, 0.2713893354, -0.3410677910, -0.3363669217, -0.2224334031, 0.2181143612, 0.1677987576, -0.2679907382, 0.0088682771, 0.3494975567, 0.2085238099, 0.3711903691, 0.2464278042, 0.4168221951, -0.1243621036, -0.5928782821, -0.3546650112, 0.1380892098, 0.0695565492, 0.9185845852, -0.1472840160, -0.0088719493, -0.0326122008, 0.1401418149, -0.2660371363, 0.3937313259, 0.3095475733, -0.1947068125, 0.1613949388, 0.2572200000, 0.2338180840, 0.2009098828, 0.1791465431, 0.1649932563, 0.0692938566, -0.3587533534, 0.0644439980, 0.2152064741, -0.1066296920, 0.1763079613, 0.0895095468, 0.3473604918, 0.2015244812, 0.1988879591, -0.1884378940, -0.2772070467, 0.1235769242, -0.3461171985, 0.1921091229, 0.2625508606, 0.1870136261, 0.3120024502, 0.1814040989, 0.3482112885, -0.0613212064, -0.1574325264, -0.3626392782, 0.0210628938, -0.0381508693, 0.2551847994, 0.2268311828, 0.0498390645, 0.1161001399, 0.1653743833, -0.2224159837, 0.2430915236, 0.3369988203, -0.1870961636, 0.1494968981, 0.1977625638, 0.3834304214, 0.1813080013, 0.2567746043, 0.1357871145, -0.2159821242, 0.1947612762, 0.1812317818, -0.2900601625, 0.2033181489, 0.2879427373, 0.2260071933, 0.3410959542, 0.2213510424, 0.1895820349, 0.1853260994, 0.2477091998, -0.2179169059, 0.2180263549, -0.0281615909, 0.3699198961, -0.2826966345, 0.1553498507, -0.0026746620, 0.0971410275, 0.2131548673, -0.4130138457, -0.2643214166, 0.2818525434, -0.2218120545, 0.3474889100, -0.1771427095, 0.2509264648, 0.2139680386, -0.0593616813, -0.3335465789, -0.3084796369, 0.2887570560, 0.2757051289, -0.3079317808, -0.2102293968, -0.3116286695, 0.3062999547, -0.3233931661, 0.2469049841, 0.2587073147, -0.2911698222, -0.2902253568, -0.3742174804, 0.2716204524, -0.2803470194, 0.2755782604, 0.2848212719, -0.2880572081, 0.2844984233, 0.0951043889, -0.1668906659, 0.0800755098, 0.1548936218, 0.0145250913, 0.0953385085, -0.0820315555, -0.0083236825, -0.0517815799, 0.0044001774, 0.1954511851, 0.3185562193, 0.0858354867, 0.2137274593, -0.1282052994, 0.1368977129, 0.0918401256, 0.0335595720, -0.0890329331, -0.1217068657, -0.0548821576, 0.3809221387, 0.3823696673, -0.3435949385, 0.2591786087, 0.0446803905, -0.2361507416, 0.2891628742, -0.2539384663, -0.3095475137, 0.2630226612, -0.4170632064, -0.1845206171, -0.7051951289, 0.4540133774, 0.1762379706, 0.6589429975, -0.7187628746, -0.4821325839, -1.0410660505, -0.1681763828, -0.0721706077, -0.0624178909, -0.2371421158, 0.1891946644, 0.3323003054, 0.3088529408, 0.3394130468, 0.3207325637, 0.2488893121, -0.2115799636, 0.2507427931, 0.3597436249, -0.2328412384, 0.1701240093, 0.2103920877, 0.2145588100, 0.1916536540, 0.3334427178, 0.2023774087, -0.2195305824, 0.0593853965, 0.3370353580, -0.2006846964, 0.2157857269, 0.2281804234, 0.3878435194, 0.2533807755, 0.2293798327, 0.2361599803, -0.1601496935, 0.1325171739, -0.2098867744, -0.1681379378, -0.0425533652, 0.2910839617, 0.0502705052, 0.2938433588, 0.1536750644, 0.1982457936, -0.2705547512, 0.3222207725, 0.3445753157, -0.2490970492, 0.1584819853, 0.2233258188, 0.2547011077, 0.2035350055, 0.2097910643, 0.2382703871, -0.1271698624, -0.2187203467, -0.1283289343, -0.1343369633, -0.0780092180, 0.4221071601, 0.2639419138, 0.4040560424, 0.3314718306, 0.1211884767, -0.1073157936, 0.3598893881, 0.1270032376, -0.1260211915, -0.2153236270, 0.3812396526, -0.0589295626, 0.2966501713, 0.2118538618, 0.0239184555, -0.2184001505, 0.2164102197, 0.1747268438, -0.2858381569, 0.2391302735, 0.3516815603, 0.3412868679, 0.3471713960, 0.2070635557, 0.2516988516, -0.6181951761, -0.1403166503, -0.7960994244, -0.2792347968, -1.2399907112, 0.4919916391, 0.3133457005, -0.5910904408, -0.0429118164, -0.4622849524, 0.0117058493, -0.0457753427, 0.7203571200, 0.2324361801, -0.3360946774, -0.1675404459, -0.0830809325, 0.3372192383, 0.1931429654, -0.2641908228, -0.1895604581, 0.2897549272, 0.0918611139, -0.2428065091, -0.2106486410, 0.3775183558, 0.1212765127, 0.1652193666, 0.3080157936, 0.2473521382, -0.3258178234, 0.3582835495, 0.1847146302, -0.2170906663, 0.2192277461, 0.3284003437, 0.2185253650, 0.2295607030, 0.2724077106, 0.2787528932, 0.2790304422, -0.2917456925, -0.3119702041, -0.2795183957, -0.1723871231, 0.2709637284, 0.2885366082, 0.2731254995, 0.3205110431, -0.3316227794, -0.2729164660, 0.4239931107, 0.0681051910, -0.1518785506, -0.1931543350, 0.2732964456, -0.0252952091, 0.2235560417, 0.3809128702, 0.0614809170, -0.1854703575, 0.3047693670, 0.0336927250, -0.1775106788, 0.0088097807, 0.2180186361, 0.2373086363, 0.3639557064, 0.3027773499, 0.2514043450, -0.9741593599, -0.1333485991, -0.0512836836, -0.7408068776, -0.0014344812, -0.6392336488, -0.8637850881, 0.3657711148, -1.0883319378, 0.2106215060, 0.1620215923, -0.3420723677, 0.2447201759, 0.2276821285, -0.1825509965, -0.2845597863, 0.0808591545, 0.2768006921, -0.3383479714, -0.2992718816, 0.2799328864, -0.3112560213, -0.2951323390, 0.2820586264, -0.3332486749, 0.2797549367, -0.2902770042, -0.2691207528, 0.3338340521, -0.3078003526, -0.2507871985, 0.2368217111, -0.2910259068, -0.1606346965, 0.3759424388, 0.6894202828, 0.1110476851, 0.1391373873, 0.2230061293, 0.1965683401, -0.0056016021, -0.4862140417, -0.3367162943, 0.2423318624, -0.4483514428, 0.2006321102, -0.3248008788, -0.0650702119, -0.3662109971, -0.0105112996, -0.1874432862, 0.0089024231, 0.1548987329, -0.3574816287, 0.3076629937, 0.2031351477, 0.3320359886, 0.3122193217, 0.2426814586, 0.1844770163, 0.3026026487, -0.2691811621, 0.2760456502, -0.2948880792, 0.3041404486, -0.3083954453, 0.2723140121, 0.2750162780, -0.2765272856, -0.3155114055, -0.2362311184, 0.1697719395, 0.1658678800, -0.2596093118, 0.1156552956, 0.2657772899, 0.4551321566, 0.2240365446, 0.1238723174, 0.1667485684, -0.2622911930, 0.2061920166, 0.0464335568, -0.1371372342, -0.1139934510, 0.4344908893, 0.2199122310, 0.3061209321, 0.2942358553, 0.3101847172, -0.3409656584, 0.2955547869, 0.1035576835, -0.2145010084, 0.1494482458, 0.2343919724, 0.2643078566, 0.2318890542, 0.2637827694, 0.1971975863, -0.1262844205, 0.4197731316, -0.1187075749, -0.7160881758, -0.1961312741, 0.3554491997, 0.4656684399, -0.5910903811, -0.0129649518, 0.1238900945, 0.3005035520, 0.3875828087, 0.1648492962, 0.2498374432, -0.0787167996, -0.0093273465, -0.1314400136, 0.1345360726, -0.0576313473, -0.2173829377, 0.0374517590, -0.1713167727, -0.6265351772, -0.6550217867, 0.4381823242, 0.1763555706, -0.0655010864, -0.6841418147, 0.1915953010, 0.1218712181, 0.2248287052, 0.0613184758, 0.0061124437, 0.0298665725, 0.0875478238, -0.2011264265, 0.2625211477, 0.1912951618, -0.1182536334, -0.2189939171, -0.1269922405, 0.1180281416, -0.0744795054, -0.1614100337, -0.0493375435, 0.2700369656, 0.2350461632, 0.1388833672, 0.4519135356, 0.2324148715, 0.2868847847, -0.2689465880, 0.2892496884, 0.3140935004, -0.2980259657, 0.2850684524, -0.2809334993, -0.2641263008, -0.3006292880, -0.2243578881, -0.2447503507, 0.3880566955, -0.2413701564, -0.2028069794, 0.1315563619, 0.2077576816, 0.2235049009, 0.3482799828, 0.2672841251, 0.3522239923, -0.3636304438, 0.2797418833, 0.2156112939, 0.2418965995, -0.2852334976, -0.1059037000, -0.2184506655, -0.3973293006, 0.3161967099, -0.3385876417, -0.2138944864, 0.3685651720, 0.5076539516, 0.0334264636, 0.2647733390, -0.2930326760, -0.2035292238, 0.1633781493, -0.1257255375, -0.0394758135, 0.2713520825, -0.9582732320, 0.3708125055, -0.2902199328, -0.3901979327, 0.1424675733, -0.3047657013, 0.3088150918, -0.4489887655, 0.3073811233, -0.1942234188, 0.3522384465, 0.3092583120, -0.2257532030, 0.2214065492, 0.3565361798, 0.1836595982, 0.3576140106, 0.2151551396, 0.2007232010, 0.2416488230, 0.3123129010, -0.0538799390, 0.2342975885, -0.2036281824, 0.2833759487, -0.2078994364, 0.2081326395, 0.0080608921, -0.1040147319, 0.3386128545, 0.1829872876, 0.4342351258, 0.4847009480, -0.0646162257, -0.0790464655, 0.1014790908, 0.0737083778, -0.0867838711, -0.1596475393, -0.2424484789, 0.1484041363, -0.0146879982, -0.1292545646, -0.0794931650, 0.4345696270, 0.2215873450, 0.3729660511, 0.2520227134, 0.1477001458, -0.2107917517, 0.0663610101, -0.0481524430, -0.2463203371, -0.0151591124, 0.2721172571, 0.4136622846, 0.3206641674, 0.2856562734, 0.3801981807, -0.2068292499, 0.1780726612, 0.1888716221, -0.1728755683, 0.1607229710, 0.2353458256, 0.1942957193, 0.2209112495, 0.1856180578, 0.1907711923, -0.1206543893, 0.2604721189, -0.2322476208, 0.0801979527, 0.0117207710, 0.3148491681, -0.1265316457, 0.1599577963, 0.0177358557, 0.0242766067, -0.0395801403, 0.3553861678, -0.1120091677, -0.0191901624, -0.0940030441, 0.3443550467, -0.1253352761, 0.1977197230, 0.3662221134, -0.0122582307, 0.3445999026, 0.2526678443, 0.2617605329, 0.3966457844, -0.3037270606, 0.0399836525, -0.0091202762, -0.0185941514, -0.0201713741, -0.2641561925, -0.2416610122, 0.3101537824, 0.1681136936, -0.1623570025, 0.1346113384, -0.0239473265, -0.0376987010, 0.0504565723, -0.5068408847, -0.2164485157, -0.5606896877, 0.0897063613, 0.1441016495, 0.7060911655, -0.1970624477, 0.4584149122, -1.0607452393, -0.2014711648, -0.1140350252, 0.4389253855, -0.2010140121, 0.3555589020, 0.2363134623, -0.2797394693, 0.2083956301, 0.2095363140, 0.3024571538, 0.3692911267, 0.2379590571, 0.2384932339, -0.0535368845, 0.3136841655, -0.0802270621, 0.1540532708, -0.0513394773, 0.3460923433, -0.0179446917, 0.1258341372, 0.1618738323, -0.0157809220, -0.1837431937, 0.2624663115, 0.3895871043, -0.2542319000, 0.1945875436, 0.2185447514, 0.1727168560, 0.3255140185, 0.2466833591, 0.2384764552, -0.2327393293, 0.2234355658, 0.1765002459, -0.2520993054, -0.0960649922, 0.2936761975, 0.1933538169, 0.4064761698, 0.2519252002, 0.1921269745, 0.0852414742, -0.1580848694, 0.1961996108, 0.2698519230, -0.0905299410, 0.0377948061, 0.1165047064, 0.1085495576, 0.0585339218, -0.1143507436, -0.3142863810, 0.2760421038, 0.3344252110, 0.3146693707, 0.2623593807, -0.3157412410, 0.2653247714, 0.2951987386, -0.2662844658, -0.2600288987, -0.2588406801, 0.3187688887, -0.1482736766, -0.3311714828, 0.2573542595, 0.0071837846, 0.2399747521, 0.0248209685, 0.3978514075, 0.2122491300, -0.0517259985, -0.0837293863, -0.0080434950, 0.0727776065, -0.0483383723, 0.2681091130, 0.1138123348, 0.2348073125, 0.1987592876, 0.0047896970, -0.2962045074, 0.4035881460, 0.1878277063, -0.2152959108, 0.1554318219, 0.2057430297, 0.1815614253, 0.2658669949, 0.3283115327, 0.2335735261, -0.0087980069, 0.0021726794, 0.1964101046, 0.1937867701, 0.0181458797, 0.0920280814, 0.0578838550, 0.0366955660, -0.0177153684, -0.0731857568, -0.2543055415, 0.2577089667, -0.2658402324, -0.2991716266, 0.0642406195, 0.2529737055, 0.1944445968, 0.3794116676, 0.3465285897, 0.3055616319, 0.2636986673, -0.4636503458, 0.8938301206, -0.5856044292, -0.8303278685, -0.4745270312, 0.2854769528, 0.0628540665, -0.5357648730, -1.1183257103, -0.3002452552, 0.2585909665, 0.2787979841, 0.3808856308, 0.1968427002, 0.2279989868, 0.1793000847, 0.1804688573, -0.2671394050, 0.1768482178, 0.2807054222, -0.2908275723, -0.3142371774, -0.3425789475, 0.2776637077, 0.2707014084, -0.3053290546, 0.2781640291, -0.2844977081, -0.2966244221, -0.2154888511, 0.1429944336, -0.5045052767, -0.2432063669, -0.0321704373, 0.3097121119, 0.0839753151, 0.4318124950, 0.3261614144, 0.1849667579, -0.0361686349, 0.1324521303, -0.1275725365, 0.0547276549, -0.0531128310, 0.1481758952, -0.0013000804, 0.2606905699, -0.0306278337, 0.0780818015, 0.0373697244, -0.0834399313, 0.3032796681, 0.2044796348, 0.0178445335, 0.0550075322, -0.0177227445, -0.1293300539, 0.0348455422, 0.0007061106, -0.1942602247, 0.1964352876, 0.1867568642, -0.1719123572, 0.2856653631, 0.2908365726, 0.2202550620, 0.2393191308, 0.3631625473, 0.2479634583, -0.2468407452, 0.2910701036, -0.1597612053, -0.0153899286, -0.1069613472, 0.2691972554, 0.1210634932, 0.3130332828, 0.2757702470, 0.1810143143, -0.1968247294, 0.2577558160, 0.1162681580, -0.3128397167, 0.1910007596, 0.2400336415, 0.2690042257, 0.3619638085, 0.1939507425, 0.2259543091, -0.1892728359, 0.1455189139, -0.0039901934, -0.1659785509, -0.0119686760, 0.3571410477, 0.2134129703, 0.3269855678, 0.2325402796, 0.2317202091, -0.2776697874, 0.2947548032, -0.3128538430, -0.0749672055, 0.0414252542, 0.3041577935, 0.0537039675, 0.2451241761, 0.2173935324, 0.0909257010, -0.2070832253, 0.2051125169, 0.3464333415, -0.2003420740, 0.2001676410, 0.2277369052, 0.2014641315, 0.2686026990, 0.2012632340, 0.1967444569, -0.2547731698, -0.3293128610, -0.2349958569, -0.2468836308, 0.2601019442, 0.0226265024, 0.3712185323, 0.2489851266, 0.1428991109, 0.1686074436, -0.2658455372, 0.2823983431, -0.0388811864, -0.3364560306, 0.1680889428, 0.2242544740, -0.0349958278, 0.1846724600, 0.2328428626, 0.3696931899, -0.0172497835, -0.2637676597, 0.0601753145, 0.0247821044, -0.1173420846, 0.1243371814, 0.2345274687, 0.2870343029, 0.2103317976, 0.0367272496, -0.0906529725, -1.4000803232, -0.1841474921, -0.9256572127, 0.4016137421, -0.0894851685, -1.0708069801, 0.2070864886, -0.5545418262, 0.3852946460, 0.6282230616, 0.3329977691, -0.8835046291, 0.0128601762, -0.2030699998, -0.1194182113, 0.8144425154, -0.2838454247, -0.3262013495, -0.1524116695, 0.2844545543, 0.2585211098, -0.3517974615, -0.2990362346, -0.2900114357, -0.3002145588, -0.2675339878, 0.2634873092, -0.3012729585, 0.3385545015, -0.0237126872, 0.3142535985, 0.0560977645, 0.0331491008, -0.0907639042, 0.3207457662, -0.2424283475, 0.3303762674, 0.0339954495, 0.0277829245, -0.2892780900, 0.1955219209, 0.1670661569, -0.1789830476, 0.3191734254, 0.1957341284, 0.3922015727, -0.2717733979, 0.3687521815, 0.2138955593, -0.2220682502, 0.3312023580, -0.2364914566, -0.1455973685, -0.1225944310, 0.3167643547, 0.0498215184, 0.1611669362, 0.2197487056, 0.2193429917, -0.1155400127, -0.2257096320, -0.1363780946, 0.0580458529, -0.0045299642, 0.2235503942, 0.1912320256, 0.2440527231, 0.2040124536, 0.0239996444, 0.1048601642, -0.0831538960, -0.1354261488, 0.2500226498, -0.0341779664, 0.4090757072, -0.1104416624, 0.1467836946, 0.0623558238, 0.0440686643, 0.2799041867, 0.3004897237, -0.2755715549, 0.2811155319, -0.2667036653, -0.2914092243, 0.2885373235, 0.3289478719, -0.2929515541, -0.3375387788, 0.2630608380, -0.0952800438, -0.9533644319, -0.3577985466, -0.2988204658, -0.0962918848, 0.2458289713, 0.2875023782, -0.5199491978, -0.1834903061, 0.3463327289, 0.0690056160, 0.2034870833, 0.3280501962, -0.0348297320, -0.1756113172, 0.1383987069, 0.0221081469, -0.1400299966, -0.0661987364, 0.1054677591, 0.0977815986, 0.1895491034, 0.2471215129, -0.1247918308, 0.1430765092, 0.0786547139, 0.1062380522, -0.1097730175, -0.0681518763, 0.3953599334, -0.0662444830, 0.2211834341, 0.3586845994, -0.1391604096, 0.0570884012, -0.0696490407, -0.1540689170, -0.1216550171, -0.1722020507, -0.0490583070, 0.2606689036, -0.1163280085, 0.1319193095, -0.2726517022, 0.4378744364, -0.0211286750, 0.3249010444, 0.2825565636, -0.0270966310, -0.1754262298, -0.4096425772, -0.1818178743, -0.0612008646, -0.1077858657, 0.2096077949, -0.3475981355, -0.3939172029, 0.4129802287, 0.2302698195, -0.2299595177, 0.2091736645, 0.1536232233, -0.1461793482, 0.0264625847, 0.1975025386, 0.0724319816, 0.3907968998, 0.2453272194, 0.1074969843, -0.0381509252, 0.2704990208, 0.0720655620, -0.2770027816, -0.3397072852, -0.1837519556, -0.2907844484, -0.2977586687, -0.2782881260, -0.2749272287, -0.2986392379, 0.2818747461, 0.2651081383, -0.3332802653, -0.3021940291, 0.2698816061, -0.3259400129, -0.2983772159, -0.2698684037, -0.3147017956, -0.0954411998, -0.1438418925, -0.1761264056, -0.0029068084, 0.0115110576, 0.3282088935, 0.0138052665, 0.3216161132, 0.1238536686, 0.0480011590, -0.2822642326, -0.3169232309, -0.3907383382, 0.2777085900, 0.1254449785, 0.2772787213, 0.2822740376, 0.0117646847, -0.2995024621, -0.3538492322, -0.2023122311, 0.3265249133, 0.1550169736, -0.1627545953, 0.1261640191, 0.2956922650, 0.1974523664, 0.2328229100, 0.2368242443, 0.2416431755, -0.2252334058, 0.3636158109, -0.3568279147, -0.1913437694, 0.1742958575, 0.1611935794, 0.3998137414, 0.1520066410, 0.3425315022, 0.4028737545, -0.2491891831, 0.2025263458, 0.3015975356, -0.2470250130, 0.1876729429, 0.2098032832, 0.1769964844, 0.3220654726, 0.2304078490, 0.3508243859, -0.1888866872, -0.6008609533, -1.2439116240, -0.5715144277, -1.1448386908, 0.5617312789, -0.6195406914, -0.7069787979, -0.2045540661, -0.2519640923, -0.2279995382, 0.1804972440, 0.2974120378, -0.1682939529, 0.1709976345, 0.2701708674, 0.3415264487, 0.2369572371, 0.2160550952, 0.2526324987, -0.2952269912, 0.2958848774, 0.0165814459, 0.3020220101, 0.2066549212, 0.0288814884, 0.1250985861, 0.1117776781, -0.3307063580, 0.1287338436, -0.0580222569, -0.2326552123, 0.4346007705, 0.3572742045, -0.3363374770, -0.5539999604, -0.7592267990, 0.9880468249, -0.6326415539, -0.5094479322, -0.1536671519, 0.3088109195, 0.2744217515, -0.4345591664, 0.1150752679, -0.2220190167, -0.1243949085, 0.3185454011, -0.4886607230, -0.0450945273, 0.3271425664, 0.2776762843, -0.3718026876, 0.0008863332, -0.1626937091, 0.1000472605, 0.0981418043, -0.0896109045, 0.1114036515, 0.1383674592, 0.2732874453, 0.0610429905, 0.4276484251, 0.3526957035, 0.1722114235, -0.1673334539, -0.1106764972, -0.0216457322, 0.0472538732, 0.1111544669, -0.1731837541, -0.7224804759, 1.1283705235, -0.2172056884, 0.0043097194, -0.4458775520, -0.5346081257, -0.1682947129, 0.3113611639, -1.0961976051, -0.7669975162, 0.0278592333, -0.4068001509, -0.6901820302, 0.3825547993, 0.0942905918, 0.0254263673, -0.4574998021, 0.0312431399, -0.5281968713, 0.0313268416, 0.1003608033, -0.0893279314, 0.1062744930, -0.0520887040, 0.1570338011, 0.0280623995, 0.1930000633, 0.1793935746, 0.0570826121, -0.2946127951, 0.2141499370, -0.2859330177, 0.2624044120, 0.0884693488, -0.2891458571, -0.4131114781, -0.0142568722, 0.2379134297, -0.2054500580, 0.3057429492, -0.2743163407, 0.2923799455, 0.3024930060, 0.2845362723, -0.3221735060, 0.3155672252, 0.2656543851, -0.2600130141, 0.2881612778, -0.2493437082, 0.2915859818, 0.2434891313, -0.1592293829, 0.2033929229, 0.2779782414, 0.2422432899, 0.1779483706, 0.3329729140, 0.1846837550, 0.2563245595, -0.3132580817, -0.3044643402, 0.2532428205, -0.1378620565, 0.3208425641, -0.3029216528, -0.2927283049, 0.2925597429, -0.3038306832, -0.2788235545, 0.2669636011, -0.2792716324, -0.2829183638, 0.2643296123, -0.2736019790, -0.3438565731, -0.2738374472, -0.3196889460, 0.2699429691, -0.1855894774, -0.0063688182, -0.2589766383, -0.2482184470, -0.1158298925, 0.2779953778, 0.1477697194, 0.4300105274, 0.2153360099, 0.1603734642, -0.3034139574, 0.2977449298, 0.2421023846, -0.1819463372, 0.2438881099, 0.2056894600, 0.3476719558, 0.3285207152, 0.1924147457, 0.2131844461, -0.2636077404, 0.1659186631, 0.1116239280, -0.2332927436, 0.3201962709, 0.1867466420, 0.2316103429, 0.3325644433, 0.3075961471, 0.3223603666, -0.1310437024, 0.0042342688, -0.1694467366, 0.0410625227, 0.0274646096, 0.3325940073, -0.0214087386, 0.3733548224, 0.1383200884, 0.0318924524, -0.1727833301, 0.2526896298, -0.0097789988, 0.0500776768, 0.0960007310, 0.0637245625, -0.2953219712, 0.2184871733, 0.3421966136, -0.1497177482, 0.0293931719, 0.2060740441, 0.0437074043, 0.2395655513, -0.1379820704, 0.2633956969, -0.1747215241, 0.1704876721, 0.1280102432, -0.0460083894, 0.3232219517, 0.0340182595, 0.1396239102, 0.4160074890, -0.0348435082, -0.0987462774, -0.0368086509, -0.0571653545, -0.0705780014, 0.0103380401, 0.0888768062, 0.1830393225, 0.4125761688, -0.0294239931, -0.3406573236, -0.2490607798, 0.2863671184, -0.1919562668, -0.2992252111, -0.2768054307, 0.1875814348, -0.1418214440, -0.1886746138, -0.4760893881, 0.2950559258, 0.0930597112, 0.5569894910, -0.5508882999, -0.5864168406, -0.4734240472, 0.3215472996, -0.4953366518, -0.0546970479, -0.2427877188, 0.2804696262, 0.1226913482, 0.2505430579, -0.1152183786, -0.0780981332, 0.2099377662, -0.1127800196, 0.2125094086, 0.1667502820, -0.0887035355, -0.1270790398, -0.1300770044, 0.2602611482, 0.2671025693, 0.0018854266, 0.0070446134, -0.2175284624, 0.1276140511, 0.2905061543, -0.1726063639, 0.2014720291, 0.2021142095, 0.3237051964, 0.2422437221, 0.2528475821, 0.2082086653, 0.2196135223, 0.1837545931, -0.2288857400, -0.0561779998, 0.2667041123, -0.5300022960, -0.0810137764, 0.1304104328, -0.2412446886, 0.1350354254, 0.1480853856, -0.3536484241, 0.0274278093, 0.1996226907, -0.1634186357, 0.1007882878, -0.8001084328, -0.4599484801, 0.0748271346, -0.9711225033, 0.2702524662, -0.0673084483, -0.5209512115, -0.3794360161, -0.3603184521, 0.0135110663, 0.0462453626, 0.0906257927, -0.0710707977, 0.3965235949, -0.2027128190, 0.3760900497, 0.2121665180, -0.2043592781, 0.1840239763, 0.2913998365, 0.1704608053, 0.1308355778, 0.3599053621, 0.1545125842, -0.2104311734, 0.3647575676, 0.3270856738, -0.2279007286, 0.1920331419, 0.1887764931, 0.1951576322, 0.2316358685, 0.2157185376, 0.2722981870, -0.5602637529, 0.0509299226, 0.6517058015, 0.0097835856, 0.1052915677, -0.1162471175, -0.4895745516, 0.2971945703, -0.1091341004, -0.1425281316, -0.2181298584, 0.1743251681, 0.0391311049, -0.1055397168, -0.0214762073, 0.3565914035, 0.1241096556, 0.1676457375, 0.4198976159, 0.2689000368, -0.2231856734, 0.1918461174, 0.0830166191, -0.1744815558, -0.0012768696, 0.4181098342, 0.3261163533, 0.2052728385, 0.2528789937, 0.2275737524, -0.2553943694, 0.2857686877, -0.3447698951, -0.1799312085, 0.2673839629, -0.0373017043, -0.2803736925, -0.3758370876, 0.3803757429, 0.3215863705, -0.2267265469, 0.2357738465, 0.3073398769, -0.2283646613, 0.2094985694, 0.2617133856, 0.2260390371, 0.2038520724, 0.2941189408, 0.1735017002, -0.0090666115, -0.2943345308, -0.4059582055, -0.3380780220, 0.2404247373, 0.3826648295, 0.3656328619, -0.2195400894, -0.1359125972, 0.1196810156, 0.2740628421, -0.2805620730, -0.3261453807, -0.2579980493, 0.2981298864, -0.3223041892, 0.2934938371, 0.2699762881, -0.2625440359, -0.2903269529, -0.2480721623, 0.2848307192, -0.0930053592, -0.1247919500, 0.0362360179, 0.2642948031, 0.3947865665, 0.2450570315, 0.2697237432, 0.3755902350, 0.1204360500, -0.3074727058, 0.0245478619, 0.0900821388, -0.1738332212, 0.2274580747, -0.0819073468, 0.2196938694, 0.2312857807, 0.3532330990, 0.2867134511, 0.2914154232, 0.3082234263, -0.3413937688, -0.2854552567, 0.3299586773, -0.3155376911, -0.3270114958, 0.3068602383, -0.2587717772, -0.2104851156, -0.3143443167, -0.1090689451, -0.2309163511, 0.3702089190, 0.2928410470, 0.2460201830, 0.2105803639, -0.2683668137, -0.0077236393, 0.1543745250, -0.2833344936, 0.4155977666, 0.0573679544, -0.3428142071, 0.2610763609, 0.2939387262, 0.1276762635, -0.3255283833, -0.2907878160, 0.3388012648, 0.0604345426, 0.1180518195, 0.3452108800, 0.0143141085, -0.0185135435, -0.0261694063, -0.0719320253, 0.0025852551, -0.0327455439, -0.2830379605, 0.3138187230, 0.2606802285, -0.3416422606, 0.3052347600, -0.2742262483, -0.2712893188, 0.2647909522, 0.2647855878, -0.2852222323, 0.0225618854, 0.2484357655, -0.0893474743, 0.1857879609, -0.0311190188, 0.3504706621, -0.2612042129, 0.1778816134, 0.1139359251, -0.0166618619, -0.2040062994, 0.1230369732, 0.2563633919, -0.3602469265, 0.2884177864, 0.1983167827, 0.2682956755, 0.3588767648, 0.2395029664, 0.2418527901, -0.2608807087, 0.2924103141, -0.0091247661, -0.1018249467, -0.0442119315, 0.4071622193, 0.1652161926, 0.3189854622, 0.2388526350, 0.2214238942, -0.6640056968, 0.1182676032, 0.5711196065, 0.4813931882, -1.0652556419, 0.0237528980, -0.9972398281, 0.4039051235, -0.1925768405, -0.8436512351, -0.0889870077, -0.0646680444, 0.1420061290, 0.2409876883, -0.3040272892, 0.3418577015, -0.2445399165, -0.2413958311, 0.0690282062, -0.0743985921, -0.7077143192, -0.5941123366, -1.1003452539, -0.0532793105, 0.1564178914, 0.4144577682, -0.9674313664, 0.1877874136, -0.6005971432, 0.5608455539, 0.2574504614, -0.3256324828, -0.3364766240, 0.1285757720, -0.1729320884, 0.2739720047, -0.3248261809, -0.3970779777, -0.3379798532, -0.2108672410, -0.1342413276, 0.6983118057, 1.1081053019, 0.0202495549, -0.6931719780, -0.5463047028, -0.2062240839, 0.0431362689, -0.2128262818, 0.5307383537, 0.1788524240, 0.2071840912, -0.0122999297, 0.2494654953, -0.1880635768, 0.3116359711, -0.0074507920, -0.2402410954, 0.4123461545, 0.0244713258, -0.2841637433, 0.3693704903, 0.1887350380, -0.1782059073, 0.2167076766, 0.2326697111, 0.2967422903, 0.1957668364, 0.2231566310, 0.2255104333, -0.1652064174, 0.1943085492, 0.0552026592, -0.2411313951, -0.0241334867, 0.4247061014, 0.3172259331, 0.3507583737, 0.2324105054, 0.2286412418, -0.1734191775, 0.1900508553, 0.2248377502, -0.1975728124, 0.1884191632, 0.2271020263, 0.2715056241, 0.1948751509, 0.1961241961, 0.2812693417, -0.1936598718, -0.1331896484, 0.1794580370, -0.2415573448, 0.3104658425, 0.2364088446, 0.1995145828, 0.2365740836, 0.2251744121, 0.1861709058, -0.2183387727, 0.2641189396, 0.6823251247, -0.2742639482, 0.0942652822, -0.1669650227, 0.0785225555, 0.0397244133, 0.4557943344, 0.3588701189, -0.1537613720, 0.1759182662, 0.0452284850, -0.1494031698, -0.0587518848, 0.3608680367, 0.2780611217, 0.2494412214, 0.2699165344, 0.2533567250, -0.1487153620, -0.2906076908, -0.1384013593, -0.2179431468, 0.2048794180, 0.2539773285, 0.3938552439, 0.3208708465, 0.2301861346, 0.1853014082, -0.4182897806, -0.2402148843, -0.0076572942, 0.1384023875, -0.1718404442, 0.1125431284, -0.0430602469, 0.2687451243, 0.0628414750, -0.3364156783, 0.1148781925, -0.0483754501, -0.0456410348, 0.1248779669, -0.1042147428, 0.1472945213, -0.0868830606, 0.3851751983, 0.2050113827, 0.2406777591, 0.2676289678, -0.2132456154, -0.0902218297, 0.2382862568, -0.1825326085, 0.3007521033, -0.0543381609, -0.3563526273, 0.2397420853, 0.0481066816, -0.0828405097, -0.2809042633, 0.1598479301, -0.2034726143, 0.0724029690, 0.0281082261, 0.1854553968, 0.1429015994, 0.1474192888, 0.2434210479, -0.3541400731, 0.2670506835, 0.2935200930, 0.2609419525, -0.0298484825, -0.4513827264, -0.1363082379, -0.0275103375, 0.0907758400, -0.3468619883, -0.0397578441, 0.2243591547, -0.0443800092, 0.1016392782, -0.0254592113, 0.2086033374, -0.0555289425, 0.3108183146, -0.0078475671, -0.0097949402, -0.2826023102, 1.4853965044, -0.0517632999, -0.3055320084, 0.0124560287, -0.2603978813, -0.0652088374, 0.2917959988, -0.2434505969, -0.1652779579, -0.2255019546, -0.0378325619, 0.3452617228, -0.2412765324, 0.3381745517, 0.1651183516, 0.3683876097, 0.2500984967, 0.2207957655, 0.1856713891, -0.2902051806, -0.5253803730, 0.2914974988, 0.2433741987, -0.1210750192, -0.5448712707, -1.1130473614, 0.7589850426, -1.9339102507, 0.1723098904, -0.1631137282, -0.3024708927, 0.4427804947, -0.2191256732, 0.2488060892, 0.1845585853, 0.3953771591, 0.1999201179, -0.0650456399, 0.1812864989, -0.2815015912, 0.4553097188, -0.1476086676, -0.1107099354, -0.1752074063, 0.3319520950, -0.1767548323, 0.2344709635, 0.3979720771, -0.0085548405, -0.3515107930, 0.2201024145, 0.3405951262, -0.2169165164, 0.1709196121, 0.1826999784, 0.2065694779, 0.2103467882, 0.2960657775, 0.2591955662, 0.2971199155, -0.2408560812, 0.2947313488, 0.2386899143, -0.2320023030, -0.2630913258, 0.2616387904, 0.2711373270, -0.2836580276, -0.2630984187, 0.1365681440, -0.2906650603, -0.2069211453, 0.0821499676, -0.1135217100, 0.3173964918, 0.0545343980, 0.3958821893, 0.1244841516, 0.0760337487, -0.4840084612, 0.1522466093, 0.0189594608, -0.1162931547, -0.0895245820, 0.2597080767, -0.0331132524, 0.2980784774, -0.0001906380, -0.1982760876, -0.2811049521, 0.3004647493, 0.2723641396, -0.2679641843, -0.3458868265, -0.2420722991, -0.3383981287, 0.2689110935, -0.2759288251, -0.3096111417, 0.0496995412, 0.2463581264, 0.2201809585, -0.1527278721, 0.4283813834, -0.2027291358, 0.3011497855, -0.3216830790, 0.3672190607, -0.3357145786, -0.1562271565, 0.2665192485, 0.0353710316, -0.0997397602, -0.1250727922, 0.2712440193, 0.0684921592, 0.4587132335, 0.3075146973, -0.0006445159, -0.1733060926, 0.2417576015, 0.0765852034, -0.2544269264, 0.2509730458, 0.2114441097, 0.2362572104, 0.3515739441, 0.2094307542, 0.2379233837, 0.2592088878, -0.3195426166, -0.2606651187, 0.2627763450, -0.3058888018, -0.3144980073, -0.3241821527, -0.3336236477, 0.3020026386, -0.2693349719, -0.2010438591, 0.3163854480, 0.2668369412, -0.2181965858, 0.2073440850, 0.2231126726, 0.2125429958, 0.1885795891, 0.2633278668, 0.3125450015, 0.2760757208, -0.3422462940, -0.3332634866, 0.2562352419, -0.2215389162, -0.2842203975, -0.3197647929, 0.3052730262, 0.2942798436, 0.2677483857, -0.0788219348, -0.2202922106, -0.1242151856, 0.0926871151, 0.0033873874, 0.3618934453, -0.1453073025, 0.3489219546, 0.2040852457, 0.1079830900, 0.0079240724, 0.0982795805, 0.2861263752, 0.2151713967, -0.1272330880, -0.0178411100, -0.0442827158, 0.0672856569, 0.0234530009, -0.0661147162, -0.3354584575, 0.1436837316, 0.2065129280, 0.1713142097, 0.2095569968, -0.1156100556, -0.1134496108, 0.3600011766, -0.3884283900, -0.0745400488, 0.0785235018, -0.0958867595, 0.2128756791, 0.2758794725, -0.0695860609, 0.0270028934, 0.0773556158, 0.0476686433, 0.0326061472, -0.0546951666, -0.1221504733, 0.3772865236, -0.1183571965, -0.2318509221, -0.1511632353, 0.2717516124, 0.0107826712, 0.5640819669, 0.2540793121, 0.0111837173, -0.1956678033, 0.1296705753, 0.1452372223, -0.3029545546, 0.1858866066, 0.3490343690, 0.2091138214, 0.2400009930, 0.2056753337, 0.2646066844, -0.0283299666, 0.1128199324, 0.1827971786, 0.0608291999, -0.0550660901, 0.0004873484, 0.0814526826, 0.0635654703, -0.0835726857, -0.0645523220, 0.0114130937, 0.3514976203, -0.1534678936, 0.1113611460, -0.2002422363, 0.1002264693, 0.3490280509, 0.0451433212, 0.2895417511, 0.0409452468, -0.1657472998, -0.5234908462, -0.7980291247, -0.1508349329, -0.2882794738, 0.4560164213, 0.0223400649, 0.7300123572, 0.2371216714, -0.2963494658, 0.1328840256, 0.2071070671, 0.0571967065, 0.1676125377, -0.1785531491, 0.1556562632, -0.0286149774, 0.0270708613, 0.1996598244, -0.0436793528, 0.3001360595, -0.2988429964, -0.2693274319, -0.2625715733, -0.2767454982, 0.2720963359, -0.2628076077, -0.2822846174, -0.2647245824, -0.2941421866, 0.2521118820, 0.0222579278, 0.3233811855, 0.2654520869, -0.0729759783, 0.0244364012, 0.0166599285, -0.1478536427, -0.0714958459, -0.0638336614, 0.1219365746, -0.3132846653, -0.2774991989, 0.1719801426, -0.0808595121, 0.3321547210, 0.2420435548, 0.3724857867, 0.1728583127, 0.2027329504, -0.2649102807, 0.3280456662, 0.1681363583, -0.1885229796, 0.2749939859, 0.2168775201, 0.2424615026, 0.2159074843, 0.2893047333, 0.2329096794, -0.3701410294, 0.1581649929, -0.0290073194, -0.1893512011, 0.0070169009, 0.3530660570, 0.2809748054, 0.2648737729, 0.1281593442, 0.3767873347, -0.1928419769, 0.2244910300, 0.3191656768, -0.2035651952, 0.3577850461, 0.1924695075, 0.3764925599, 0.2111439705, 0.2499632835, 0.2628670037, -0.2057514042, 0.1451386958, 0.3559378088, -0.1826823354, 0.3858617246, 0.2461560220, 0.3536801040, -0.0282719079, 0.2160092294, -0.1808733940, 0.3589689434, 0.0990443602, 0.0149289034, 0.3482870162, -0.0912279710, 0.0878220350, 0.0436828323, 0.1040186211, -0.1309143752, -0.0899333656, -0.1537640095, -0.3001002669, -0.0482807159, -0.3870790303, 0.1096778139, 0.0600613356, 0.3716697991, 0.3923851848, 0.1680207849, 0.1341775507, 0.2243281454, 0.2919547856, -0.4250471890, -0.3108825386, 0.2601273656, -0.3236870468, -0.1318023801, -0.2321313769, -0.3648554683, -0.3880154192, 0.0344590023, -1.0249301195, 0.0266254172, -0.6758473516, -0.2951549888, -0.0866596550, -1.8936818838, 0.7593067288, -0.4080134928, -0.2481500953, -0.2143266201, 0.3715114892, 0.3593741953, -0.3521453440, 0.3641824126, 0.1928058416, 0.2634923756, 0.2394891083, 0.2339927554, 0.2424623072, 0.1747379750, 0.1123915687, -0.3632547855, 0.1103025824, -0.1186719537, 0.2823419869, 0.1912591755, -0.1621575505, 0.2380478084, 0.1714620292, -1.0136284828, -0.2100796402, -0.1328321099, -0.5019995570, 0.5792080760, -0.2426782697, -0.8863201737, -0.1248768419, -0.4004468918, 0.3709025681, 0.1871556342, -0.1385933459, 0.2937746048, 0.3722122610, -0.0617269948, -0.0700269118, 0.0855965465, -0.0604605712, -0.0895894244, 0.0278578997, -0.1898054779, -0.0149778817, 0.1394414306, -0.3335178196, 0.2089392990, 0.2638434470, 0.2132969797, 0.3709534705, 0.2140908986, 0.3391816318, 0.2709244490, -0.2813038230, -0.3110612929, -0.3334312141, 0.2838073075, -0.2859340310, -0.2878679335, 0.3254875243, -0.2852011919, -0.2881053984, 0.3137261271, 0.2436453402, 0.1664890349, 0.4167645872, -0.1340410709, 0.0920223519, -0.3149073720, -0.0297234394, -0.1341677904, -0.0598177873, -0.3134677112, 0.3312951922, 0.0341588072, -0.2024770826, 0.0044484981, 0.2659430206, 0.2381420434, 0.2506991029, 0.2320456058, 0.3203320801, 0.2872329652, 0.2872493863, 0.2934267819, 0.2581464946, -0.2885992527, -0.2791939974, -0.2665218711, -0.3318744600, -0.3392240405, -0.2889050543, -0.0120772207, 0.2184670568, 0.0450891256, 0.0625259951, -0.1214076504, 0.1075092256, -0.0561972670, 0.2096922845, -0.0419422463, -0.0208656043, 0.2732679546, -0.2553368807, -0.1515958756, 0.2731880248, -0.2804069519, 0.3341675401, -0.1482474357, -0.1578513086, 0.2728843391, 0.0021360053, 0.0246010982, 0.1259378344, 0.2066645771, 0.0819811001, -0.0526696853, 0.0179393459, 0.0829353780, 0.0300135612, -0.0359046943, -0.0706507787, -0.2372078747, -0.2662291825, 0.2451829165, -0.1774097681, 0.4617710114, -0.2154658139, 0.2610293925, 0.3356955945, -0.2844016254, 0.2177906930, -1.2741131783, 0.3828728795, -0.7372796535, -0.1096081212, 0.1113932729, -0.2829383314, -0.0525368415, 0.4643113017, -0.3362780213, 0.0531313233, -0.0583292171, 0.2920497358, 0.2615452707, -0.3458859921, 0.0788502768, 0.0658548698, -0.1267841458, 0.4234213531, 0.3052442670, -0.0146200582, -0.5153970122, 0.2197730094, -0.3489072025, 0.3172681332, -0.0498154126, -0.1261736155, -0.3305249512, 0.4721051455, -0.3954560459, -0.1545265317, 0.0237128697, 0.0803699195, -0.1449861228, 0.1795871407, -0.1225834265, 0.2960602045, -0.0404038318, 0.3562598526, 0.2116502076, -0.0689300373, -0.1213987321, -0.3172048628, -0.3722717166, -0.1521838456, 0.2553103864, -0.0714941323, 0.2993918061, 0.4316742122, -0.3152714074, 0.3270147145, -0.0598009713, -0.1569770277, 0.3364803493, -0.1000862643, 0.1986822784, -0.2440719306, 0.0833121464, -0.3202235997, 0.0721866116, -0.3408806622, -0.1864153892, 0.3798485696, 0.3498762846, -0.2500179410, 0.1746381670, 0.2340531647, 0.3073127568, 0.2565246224, 0.2541203201, 0.2211294770, 0.7394444346, -0.5105251670, 0.0788973272, -0.1100869775, -0.0310825408, -0.3573618531, -0.5509361625, 0.1255651265, -0.3992258608, 0.1662838012, 0.2441241443, 0.0341053568, 0.2378075868, 0.3350064754, -0.1687527299, -0.1207972541, -0.4338608384, -0.9074103236, -0.0623666421, -0.5378402472, -0.2046681046, 0.1990561634, 0.2698811591, -0.2328474522, 0.3309077621, 0.2258899361, 0.1932473779, 0.3096401393, 0.1906695366, 0.2068706751, -0.1858618408, 0.2444772571, 0.2145544440, -0.2375827879, 0.1653180271, 0.2000095993, 0.2563332319, 0.3667140007, 0.2588477135, 0.3023110926, -0.4345773757, 0.4478353262, 0.6558801532, -0.3040673137, -0.4597786069, -0.6443669796, -0.6481287479, 0.2753643990, -0.2151844949, -0.1181630567, 0.2399767339, 0.0870250538, 0.0783296973, 0.2291059047, 0.0499075502, 0.0997392014, -0.1150034815, 0.0430032797, -0.0403278433, 0.1069746986, 0.0373749919, 0.0442951061, 0.1368165910, 0.0719682798, -0.0349455252, 0.1623720080, -0.0342140719, 0.1700238585, -0.0168876089, -0.0517854020, -0.2025081813, -0.4000117481, 0.4132813215, -0.2399763316, 0.1417394578, 0.1811034530, 0.1226830631, 0.3662842512, 0.0675810426, 0.2687784135, -0.0091492841, 0.0152702937, 0.0684569180, 0.0090411892, -0.0973665714, 0.4195936918, 0.1089015976, 0.2958723009, 0.2772878110, -0.0075739953, 0.2967532873, 0.3011160791, 0.3219253421, -0.2757330835, 0.3144397140, -0.2784722149, 0.2571814656, 0.2755739391, -0.3198862374, -0.2584654391, -0.1819401234, -0.1835823804, 0.1491358727, -0.2093998045, 0.3768324256, 0.2232931554, 0.2543333471, 0.4136964977, 0.2512218952, 0.3419765234, -1.0298492908, -0.3819254339, -0.6414598227, 0.5443959236, -0.1451622099, -0.2563270330, -0.8934385777, -0.2383249253, -0.8178106546, -0.3192687929, 0.1206471696, 0.2832787037, 0.2315520346, 0.0335638523, -0.0854113474, 0.1622194648, -0.3229749203, -0.4551915824, 0.3005995452, 0.2011139244, -1.1581422091, 0.2821854353, -0.0013149753, -0.5163077116, 0.3771631122, -0.0480247550, -0.0954080671, -0.2921440005, -0.3772917688, -0.2240590155, -0.2631533444, 0.2614754140, 0.1451040059, -0.2312345058, 0.2214907259, 0.3611956239, 0.1922746152, 0.3391523063, 0.3290599287, 0.2014248222, 0.1768693328, 0.0853749961, -0.2371494770, 0.1780519038, -0.2744750381, 0.1898014545, 0.1025250852, -0.3394051194, 0.3780921102, 0.1377239674, -0.1898500323, 0.2308594137, 0.2194926441, -0.2336519361, 0.0500801243, 0.1811143756, 0.3766387105, 0.3357420564, 0.1466576606, 0.3435334265, 0.1656584144, -0.2050535381, 0.0053273337, 0.3282865882, -0.1704251617, 0.2562538981, -0.1143302768, -0.4296892285, 0.0438780785, 0.1668845117, 0.2888484597, -0.2675576806, 0.3277880549, 0.2717371583, 0.2872172594, -0.2627972960, 0.3427331448, -0.2772544622, -0.3038452864, -0.2970450222, -0.3088375926, 0.3560450673, 0.2097753882, -0.2171984613, 0.2692079842, 0.1984878778, 0.2251969427, 0.1712021530, 0.3688740730, 0.4220390022, -0.1814329326, 0.2121149749, 0.1372607052, -0.2090167850, 0.0037461158, 0.2477457076, 0.4023677707, 0.2254068553, 0.2753917277, 0.2357021272, -0.3313629031, -0.3203595579, -0.3323316574, -0.2671738267, -0.2782728076, 0.3103840053, -0.2668619156, -0.3184636235, 0.2817237079, 0.2901977897, 0.0729074329, -0.3431221247, -0.1295182258, 0.1452393979, -0.0998721793, 0.3234395087, 0.2775606811, -0.1528904140, 0.1754219830, 0.1693409532, 0.2886085808, 0.3204896748, 0.2784692645, -0.2837524414, -0.2709941268, -0.2614861131, -0.2785054445, -0.3021048903, 0.3210444152, -0.2637218535, -0.1865369976, 0.1932849437, 0.1437215060, -0.3337270319, 0.3120693862, 0.1928327084, 0.1955055296, 0.3092742264, 0.3279139400, 0.2614823282, -0.2032387704, 0.2404551506, 0.1606317610, -0.1923303604, 0.1838459969, 0.2200644761, 0.2055398822, 0.3092990220, 0.1986330450, 0.2136885226, -0.1229792759, 0.0759327859, 0.0361641496, -0.0614323169, -0.0427304246, 0.2208033651, 0.1448552012, 0.1774547100, 0.1890185177, 0.0123845730, -0.3324414492, 0.1843560487, 0.1084199920, -0.1962171197, 0.0851355568, 0.2263001949, 0.2604532838, 0.1801026911, 0.3060766160, 0.3860785961, -0.3187710345, 0.2796878517, 0.0846469775, -0.1843698472, 0.2390754968, 0.2198755741, 0.3708817661, 0.1889347434, 0.3526413441, 0.2633746266, 0.0397306420, 0.3484297097, -0.1407713890, 0.0238269456, -0.1893957257, 0.2841360569, -0.1732883155, 0.2996534705, 0.2223327905, 0.0655550882, -0.1203617156, 0.2664148211, -0.1453336775, -0.0675654635, -0.1501163393, 0.1618326008, 0.1901981831, 0.2723825574, 0.2437650561, 0.0038852601, -0.1601942331, 0.1620683223, -0.0230713282, -0.3441904783, 0.2139184922, 0.3057937026, 0.2923450768, 0.2693843544, 0.2318366319, 0.2754257917, -0.2287166864, 0.1846449971, 0.0054225400, -0.1037341580, 0.0080092866, 0.2546874583, 0.1012612060, 0.2867089212, 0.3594400883, 0.0752182752, -0.2526947856, 0.2938701510, 0.3222212195, -0.2068604082, 0.1836691350, 0.2256333977, 0.3476279080, 0.2493193895, 0.1824138612, 0.2021470368, -0.0367699377, 0.1640597135, 0.1288546771, 0.0750792995, -0.1212668419, 0.2117163241, -0.0556046627, 0.2131561041, 0.1805527210, 0.0713998824, 0.6843164563, 0.3345240653, -0.3549481630, -0.2039874047, 0.3081239760, -0.9107897878, -0.2329540402, -0.2703092396, 0.2722970247, -0.2313543558, -0.2205915898, 0.2403167337, 0.0212385375, -0.1960991621, -0.1712184846, 0.3488427401, 0.1161492094, 0.3867298067, 0.3257827163, 0.0637673438, -0.1878024787, 0.3062059283, 0.1116051748, -0.2046964765, 0.0785289854, 0.2350040525, 0.2303014398, 0.1811398119, 0.2415904552, 0.2264433503, -0.2048842758, 0.2045127451, 0.1981449872, -0.2525938749, 0.3066512644, 0.2711732686, 0.1931241006, 0.3111521602, 0.1956879795, 0.2208263576, -0.2207692862, 0.3599251509, 0.3283465207, -0.2051717341, 0.2225687653, 0.1797224581, 0.2457136661, 0.2292612344, 0.2109360248, 0.2350640893, -0.2001209706, 0.3094373643, 0.0192514695, -0.1660814285, -0.0582798831, 0.2850902677, 0.2457944155, 0.2120961845, 0.2775235176, 0.2664945424, -0.2027516514, 0.2351144254, 0.2573607564, -0.2174202502, 0.2106774449, 0.2316554338, 0.3415814340, 0.2080736756, 0.2240705341, 0.1854108274, -0.1217992678, -0.2925944626, 0.2892584801, 0.3078119457, -0.0087193688, 0.4179919362, -0.2895650566, -0.0690121055, -0.3362063468, -0.0810787752, -0.2035031766, 0.3975977600, 0.1957383752, -0.2277093679, 0.2045686990, 0.1299136579, 0.1980919391, 0.2636186779, 0.2105424553, 0.2276112884, 0.2957367003, -0.3051046133, 0.2948616743, 0.2764129937, 0.2977962792, -0.1808307618, 0.2939442694, -0.2718788087, -0.2575851083, -0.3343566060, 0.0091251172, -0.1299616098, -0.3851498067, 0.1887284368, -0.0991886705, 0.2049830407, -0.3365514874, 0.3737398386, -0.0891263112, -0.0028327159, -0.2489983439, -0.3742556572, 0.4077123404, -0.3638964593, 0.1746773720, 0.3922425508, 0.3537583947, 0.2569919527, 0.1442790180, 0.2197610885, -0.2472613156, 0.2504220307, 0.3448655009, -0.2158357352, 0.1290954053, 0.1961666793, 0.3319084942, 0.3444476426, 0.2003121972, 0.1984000802, -0.1846540421, 0.1246583164, -0.1346969754, 0.0765168890, -0.1200539991, 0.4828231931, -0.0148054054, -0.0681999400, 0.2837648690, 0.1843230575, -0.2027490139, 0.2398742139, 0.1907836795, -0.3592886031, 0.2551163435, 0.1917747557, 0.1879242957, 0.3293416202, 0.2277492583, 0.2184873223, -0.2840821147, -0.2710613608, 0.2882002294, -0.4287447035, -0.2311585546, 0.1290635169, 0.4495639503, -0.1620355994, 0.0173904486, -0.7358485460, 0.0182182360, 0.1170589700, -0.0269310586, 0.1228090450, 0.0350817293, 0.2778246403, -0.0961099640, 0.2140787989, 0.1076974869, -0.2105530649, -0.2359406650, 0.2519811690, -0.2398124337, -0.0407248735, 0.0125207184, 0.3748058379, 0.1192624941, 0.2935107052, 0.1697494984, 0.0416636541, -0.1606714278, -0.3245721459, 0.1328784972, -0.1316033751, 0.3771087229, 0.2272732258, 0.2111700177, 0.2410530299, 0.2003495991, 0.1044568717, 0.0265370905, 0.8535305262, -0.5741973519, -0.6744142771, 0.0441998318, 0.1890761554, 0.2946321964, -0.9646616578, -0.0408625565, -0.1891797334, -0.1770990044, 0.3251766562, 0.1990657300, -0.3027638793, 0.3026851416, 0.2190273553, 0.1910978109, 0.3407848179, 0.2077710479, 0.2340865731, -0.4560180902, 0.2731286883, -0.1380865127, 0.2594233453, 0.4391837418, -0.3520458341, -0.0718811154, 0.3480307460, -0.0011532754, -0.0719471201, -0.1897543371, 0.1853290200, 0.1401512474, -0.3707930148, 0.3034161925, 0.2569271922, 0.2154471576, 0.2371887565, 0.2136356235, 0.2011705935, -0.2294466347, 0.2885712087, 0.4758032560, -0.1813458204, -0.5185537934, -0.2548336089, -0.0165933706, 0.9595966935, 0.0117271310, 0.0516374446, -0.2557220757, 0.3261422515, 0.4309234321, -0.0847939178, -0.0767796859, -0.1502061933, 0.0866155997, 0.3276140392, -0.3010756671, -0.1870583743, -0.2781615853, 0.3031655848, -0.2614387572, -0.3396158814, 0.2890391350, -0.2841020823, 0.2998396754, 0.3035118580, -0.2570550144, 0.2726846635, 0.1503336430, -0.3929013014, -0.2347792834, 0.2007698864, -0.1558593959, 0.3800420463, 0.2037663460, -0.0878411457, 0.1984582394, 0.3104768991, -0.2093694508, -0.0925974101, 0.2316499501, -0.2333022803, 0.1703247130, 0.2505067885, 0.3953746855, -0.1399967223, 0.3119517863, 0.1491052508, -0.3004394472, 0.2898527086, 0.0960865840, -0.1476261467, 0.1261581928, 0.2706458867, 0.2056336999, 0.2053774297, 0.2657714188, 0.2045184374, -0.2355492562, 0.3901436031, 0.1362571418, -0.1462269425, -0.0318687148, 0.1855300665, -0.0242016502, 0.1770678014, 0.0776167437, 0.1073478311, 0.0922558755, -0.5100983381, -0.2117489129, -0.6151433587, 0.3415296078, -0.0139049906, 0.4181186855, -0.8533217311, -0.3159504533, -0.0258455127, 0.1116498336, 0.1580895036, -0.1113651246, 0.1181897223, 0.0175057258, 0.2950431406, -0.0286363978, 0.1560896188, -0.0560159124, -0.0270760097, -0.1275654435, -0.1559460461, 0.1553859264, -0.2737450004, 0.0550621189, -1.0350043774, -0.2085771114, 0.3980926275, 0.0748014152, 0.3111825287, 0.0818042234, 0.2539413273, -0.1289157122, 0.1101710424, -0.0808826685, 0.1066026017, 0.3883743286, -0.3444133699, -0.1837624609, 0.2986006439, -0.1774020642, 0.2178694010, 0.1390384734, -0.3067831695, 0.3314596415, 0.2123417109, 0.2118152976, 0.2967768610, 0.2359729707, 0.2586237788, -0.2919619083, -0.3455635309, 0.2005098015, -0.1898834109, 0.2999886572, 0.2255223542, 0.1733980626, 0.2592343986, 0.3747787178, 0.2219094187, -0.2087157667, 0.2216865867, 0.1852528453, -0.1736587435, 0.1942087114, 0.1958971471, 0.2179494649, 0.2240152657, 0.2882077098, 0.2474979460, 0.0469548739, 0.0006140468, -0.0996638685, 0.0444712490, -0.0853719711, 0.1467025131, 0.0784881786, 0.3378811777, 0.1342183799, 0.0969340131, -0.0059024533, 0.2857816815, -0.7819272280, -0.0930134505, -0.2941461205, 0.4641104639, -1.2231932878, 0.3573558033, -0.3711580038, -0.4132318795, 0.1243085116, 0.1110414788, 0.1212232336, 0.1546819955, -0.1390539259, 0.1831225157, 0.0130360508, 0.3653429151, 0.0918488204, -0.0178459082, 0.0522152744, -0.1242705435, -0.0760768205, 0.0907554701, -0.2100412101, 0.0596492924, 0.3798401356, 0.2551245093, 0.2450585216, 0.1692411602, -0.2964714170, -0.3127155304, -0.2787176967, -0.2586781085, 0.2864193320, -0.2853762805, 0.2828473747, 0.2906394005, -0.2574381232, 0.2742795944, -0.0250655245, -0.0128663052, 0.1601707041, 0.0644466281, 0.0727989823, 0.0136789884, -0.0629283711, 0.0603718385, -0.0843773410, 0.1415052265, -0.2274713218, 0.0800903812, 0.2014640123, -0.2050778121, -0.3208997250, 0.3600153923, 0.4001929462, 0.2632238567, 0.1895052493, 0.3106814623, -0.2660656869, 0.0290370099, 0.3785527349, -0.2417519093, 0.1909046322, 0.1592054069, 0.2437866032, 0.3808723390, 0.2299574316, 0.1942355633, 0.2730296552, -0.7117909789, -0.0190713722, 0.7912588716, -0.2977123260, -0.2369081825, 0.2527298331, -0.6344842911, -0.2358191162, -0.5455229878, -0.1018938273, 0.0574023686, -0.1955226958, -0.2254829556, -0.0746098980, 0.4023941755, 0.1412705183, 0.4320313632, 0.3868439198, 0.1579301357, -0.4565258026, -0.9750216007, -0.4387615621, 0.1966451406, -0.1250232458, 0.1939622760, -1.2811982632, -0.0319464281, -0.2121907473, 0.4565865993, 0.1425877661, 0.2005470544, 0.1546517015, 0.3346884847, -0.0360192694, 0.1830435991, -0.0822609961, -0.0033663742, -0.0862207040, 0.0944982916, -0.2154469341, 0.2677834928, 0.3908057809, -0.3181445003, 0.2286236435, 0.1570343673, 0.2981508970, 0.3136366904, 0.1815851480, 0.2544594109, -0.1709461361, 0.1328148693, 0.3931038678, -0.2141211778, 0.3877569735, -0.1650106907, 0.4036293924, 0.3760710657, 0.0639966652, 0.2058259696, -0.1764068156, 0.3567047417, 0.0997670814, -0.2348914891, 0.2065964490, 0.2085711509, 0.1826527268, 0.2256171405, 0.3023973405, 0.2997586727, -0.1721386015, -0.2319975346, 0.3068194985, -0.2180979103, 0.2327144742, 0.2046926767, 0.2574023604, 0.0090394905, 0.2343249172, 0.1689759940, 0.2812455893, -0.3209722638, -0.4488665760, 0.1844280362, -0.2670153379, 0.0042523947, -0.4708160460, -0.4223815799, -0.4826992452, 0.0423527285, -0.3244232833, 0.3253678679, -0.2037090361, -0.2744773924, -0.1058218926, 0.1061741039, -0.2277286500, 0.2170325071, 0.0425841957, 0.2415127307, 0.6337864399, -0.8720564246, 0.0413073599, -0.2460067570, -0.5411092639, -0.1865956038, 0.2196580023, -0.2423865050, 0.1207770109, -0.7175153494, 0.0847638100, 0.1169842482, 0.0529065020, 0.3504668474, 0.0881084651, 0.0412250124, -0.1407138407, 0.0057699387, 0.0342791155, 0.1450712234, 0.0042457436, 0.1673546135, 0.0309389737, 0.1122889072, 0.0224231258, 0.2463046014, -0.0166548323, 0.2099532634, -0.0056831399, 0.0337489322, -0.2071283758, 0.2017844319, 0.1383247972, -0.2387726903, 0.2375121117, 0.2158951759, 0.1790414006, 0.3653422296, 0.2948293984, 0.2388517708, -0.2066632509, 0.2582105994, -0.0788413510, -0.1968444884, 0.1979755163, 0.3302165568, 0.2238374352, 0.1684298068, -0.3377501369, 0.2144358754, -0.1620728374, 0.2451207042, 0.0739454553, -0.1829819977, 0.1464028656, 0.2557318211, 0.2134463340, 0.3659142852, 0.2141130716, 0.1855321229, -0.2315349728, 0.3485180736, 0.3396797776, -0.2232473493, 0.1422165483, 0.2315591425, 0.1768450588, 0.3312588036, 0.2486948371, 0.1837883741, 0.2434300333, -0.4142469466, -0.2755740583, 0.1758234352, -0.1346639842, 0.2547293007, -0.1264337301, 0.5650640726, 0.1589222848, 0.0271877032, -0.1946300417, 0.2597021163, 0.1904539466, -0.2307109684, 0.1966780722, 0.2425112724, 0.3076488376, 0.3141839802, 0.2097705454, 0.2290812135, -0.1802418977, 0.2112540156, 0.2012902945, -0.1820415705, 0.1935714036, 0.2704021335, 0.1902539283, 0.3400094509, 0.2295021564, 0.1708735973, -0.3441998959, 0.2402350307, 0.1687107682, -0.1830529571, 0.2176568061, 0.2246750146, 0.1944912821, 0.3150986135, 0.2356317341, 0.2530388832, 0.2707636058, -0.3242181242, -0.3873848617, -0.9042086005, -0.4916907251, 0.5770090222, -0.4174079299, 0.2106429189, -0.5197348595, -0.2173154950, -0.1806751490, 0.1236307546, 0.1271931827, -0.1733070761, -0.0389060155, 0.2523032725, 0.4012392759, 0.2244916260, 0.2990883589, 0.3284372091, -0.2516478598, 0.0101661291, -0.1452472210, -0.1208954901, -0.2109052241, 0.4637030959, 0.2811437547, -0.4102112055, 0.3977443278, 0.1913605332, 0.0546733141, 0.2294367254, -0.2339884192, -0.2300035506, 0.3474025726, -0.2936673164, 0.0948183686, 0.3944345415, 0.2308907956, 0.4013869166, -0.2085003853, 0.3314226270, 0.2464485317, -0.2890676856, 0.2371615916, 0.2190227658, 0.3399455249, 0.1939782351, 0.2501442730, 0.1993249059, 0.2844266593, 0.4118404984, 0.2053790987, 0.2827501297, -0.0005762393, -0.0650588349, -0.0081813028, 0.1392009109, -0.1614862233, -0.2541461289, -0.2576562166, 0.1983135343, 0.1850005686, -0.1706966907, 0.2329370826, 0.3324308693, 0.1771759540, 0.2160448581, 0.3147708178, 0.3420009315, -0.3554023504, 0.3178852201, -0.3154859245, -0.0079883439, -0.1288021952, 0.1893669069, -0.1061224565, 0.3627894819, 0.1027943566, 0.1447793841, 0.0115126204, 0.0252728034, -0.1275933832, 0.0843737796, -0.1707995534, 0.2954187989, -0.1207453460, 0.4262609482, 0.1947338879, 0.0831598192, 0.2493114620, -0.1583850533, -0.1190658137, 0.3247075677, -0.2087137401, 0.3404273093, -0.1874063909, -0.3688974977, 0.3604888022, 0.0329240374, -0.1991875917, 0.1719695032, 0.2270722538, -0.2538424432, 0.1491699070, 0.3720904589, 0.3459657133, 0.2016589642, 0.1943891048, 0.2120070755, 0.1894082129, -0.3241760433, 0.2046766132, 0.1751956046, 0.5070987344, -0.2747590244, -0.2915529311, 0.3885315359, -0.3167269230, 0.2354982048, -0.1298736930, -0.0363596529, 0.3291589022, -0.0233905930, 0.0238282196, 0.0195924956, 0.1361855417, 0.2499028444, -0.2334297746, 0.0292512774, 0.5431547761, -0.5639645457, 0.8827922344, -0.3613680601, -1.5513739586, 0.7573395371, -0.9648125768, -0.9928681850, -0.3840295076, -0.5931233168, 0.2005817890, -0.2146772146, -0.1177026927, 0.1461330354, -0.1473549008, 0.2922861278, 0.0593775176, 0.3836638927, 0.2354400903, 0.0424990542, -0.1617919654, 0.1999545991, 0.2011387050, -0.1886210740, 0.1913481802, 0.2437051684, 0.2468314171, 0.2055582702, 0.1891048104, 0.1898299903, -0.2250917703, 0.3775554895, 0.2497103065, -0.2200121135, -0.0030867420, 0.2315085530, 0.2628568411, 0.3348792791, 0.2150453776, 0.1513497084};
#endif

#endif
